digraph Tree {
node [shape=box] ;
0 [label="X[2] <= 1.109\nentropy = 0.435\nsamples = 14318\nvalue = [13037, 1281]"] ;
1 [label="X[2] <= 0.346\nentropy = 0.113\nsamples = 13116\nvalue = [12918, 198]"] ;
0 -> 1 [labeldistance=2.5, labelangle=45, headlabel="True"] ;
2 [label="X[2] <= 0.089\nentropy = 0.034\nsamples = 9248\nvalue = [9215, 33]"] ;
1 -> 2 ;
3 [label="X[0] <= 127.59\nentropy = 0.005\nsamples = 4694\nvalue = [4692, 2]"] ;
2 -> 3 ;
4 [label="X[0] <= 127.566\nentropy = 0.013\nsamples = 1768\nvalue = [1766, 2]"] ;
3 -> 4 ;
5 [label="entropy = 0.0\nsamples = 1763\nvalue = [1763, 0]"] ;
4 -> 5 ;
6 [label="X[3] <= -0.208\nentropy = 0.971\nsamples = 5\nvalue = [3, 2]"] ;
4 -> 6 ;
7 [label="entropy = 0.0\nsamples = 2\nvalue = [0, 2]"] ;
6 -> 7 ;
8 [label="entropy = 0.0\nsamples = 3\nvalue = [3, 0]"] ;
6 -> 8 ;
9 [label="entropy = 0.0\nsamples = 2926\nvalue = [2926, 0]"] ;
3 -> 9 ;
10 [label="X[2] <= 0.089\nentropy = 0.059\nsamples = 4554\nvalue = [4523, 31]"] ;
2 -> 10 ;
11 [label="entropy = 0.0\nsamples = 1\nvalue = [0, 1]"] ;
10 -> 11 ;
12 [label="X[5] <= 28.58\nentropy = 0.057\nsamples = 4553\nvalue = [4523, 30]"] ;
10 -> 12 ;
13 [label="X[0] <= 123.715\nentropy = 0.043\nsamples = 3804\nvalue = [3786, 18]"] ;
12 -> 13 ;
14 [label="X[0] <= 123.707\nentropy = 0.053\nsamples = 3002\nvalue = [2984, 18]"] ;
13 -> 14 ;
15 [label="X[1] <= 48.15\nentropy = 0.05\nsamples = 3000\nvalue = [2983, 17]"] ;
14 -> 15 ;
16 [label="X[1] <= 48.149\nentropy = 0.074\nsamples = 1666\nvalue = [1651, 15]"] ;
15 -> 16 ;
17 [label="X[0] <= 94.699\nentropy = 0.07\nsamples = 1665\nvalue = [1651, 14]"] ;
16 -> 17 ;
18 [label="X[0] <= 94.684\nentropy = 0.33\nsamples = 33\nvalue = [31, 2]"] ;
17 -> 18 ;
19 [label="X[5] <= 11.885\nentropy = 0.201\nsamples = 32\nvalue = [31, 1]"] ;
18 -> 19 ;
20 [label="X[4] <= 1.691\nentropy = 0.811\nsamples = 4\nvalue = [3, 1]"] ;
19 -> 20 ;
21 [label="entropy = 0.0\nsamples = 3\nvalue = [3, 0]"] ;
20 -> 21 ;
22 [label="entropy = 0.0\nsamples = 1\nvalue = [0, 1]"] ;
20 -> 22 ;
23 [label="entropy = 0.0\nsamples = 28\nvalue = [28, 0]"] ;
19 -> 23 ;
24 [label="entropy = 0.0\nsamples = 1\nvalue = [0, 1]"] ;
18 -> 24 ;
25 [label="X[4] <= 3.444\nentropy = 0.063\nsamples = 1632\nvalue = [1620, 12]"] ;
17 -> 25 ;
26 [label="X[7] <= 59.928\nentropy = 0.072\nsamples = 1390\nvalue = [1378, 12]"] ;
25 -> 26 ;
27 [label="X[7] <= 59.581\nentropy = 0.61\nsamples = 20\nvalue = [17, 3]"] ;
26 -> 27 ;
28 [label="X[4] <= 3.44\nentropy = 0.31\nsamples = 18\nvalue = [17, 1]"] ;
27 -> 28 ;
29 [label="entropy = 0.0\nsamples = 17\nvalue = [17, 0]"] ;
28 -> 29 ;
30 [label="entropy = 0.0\nsamples = 1\nvalue = [0, 1]"] ;
28 -> 30 ;
31 [label="entropy = 0.0\nsamples = 2\nvalue = [0, 2]"] ;
27 -> 31 ;
32 [label="X[2] <= 0.173\nentropy = 0.057\nsamples = 1370\nvalue = [1361, 9]"] ;
26 -> 32 ;
33 [label="entropy = 0.0\nsamples = 311\nvalue = [311, 0]"] ;
32 -> 33 ;
34 [label="X[2] <= 0.173\nentropy = 0.071\nsamples = 1059\nvalue = [1050, 9]"] ;
32 -> 34 ;
35 [label="entropy = 0.0\nsamples = 1\nvalue = [0, 1]"] ;
34 -> 35 ;
36 [label="X[5] <= 23.051\nentropy = 0.064\nsamples = 1058\nvalue = [1050, 8]"] ;
34 -> 36 ;
37 [label="X[4] <= 2.514\nentropy = 0.058\nsamples = 1049\nvalue = [1042, 7]"] ;
36 -> 37 ;
38 [label="X[4] <= 2.513\nentropy = 0.074\nsamples = 783\nvalue = [776, 7]"] ;
37 -> 38 ;
39 [label="X[5] <= 18.378\nentropy = 0.065\nsamples = 781\nvalue = [775, 6]"] ;
38 -> 39 ;
40 [label="X[6] <= 11.458\nentropy = 0.049\nsamples = 727\nvalue = [723, 4]"] ;
39 -> 40 ;
41 [label="entropy = 0.0\nsamples = 372\nvalue = [372, 0]"] ;
40 -> 41 ;
42 [label="X[6] <= 11.472\nentropy = 0.089\nsamples = 355\nvalue = [351, 4]"] ;
40 -> 42 ;
43 [label="entropy = 0.0\nsamples = 1\nvalue = [0, 1]"] ;
42 -> 43 ;
44 [label="X[1] <= 44.311\nentropy = 0.071\nsamples = 354\nvalue = [351, 3]"] ;
42 -> 44 ;
45 [label="entropy = 0.0\nsamples = 178\nvalue = [178, 0]"] ;
44 -> 45 ;
46 [label="X[1] <= 44.321\nentropy = 0.125\nsamples = 176\nvalue = [173, 3]"] ;
44 -> 46 ;
47 [label="entropy = 0.0\nsamples = 1\nvalue = [0, 1]"] ;
46 -> 47 ;
48 [label="X[2] <= 0.283\nentropy = 0.09\nsamples = 175\nvalue = [173, 2]"] ;
46 -> 48 ;
49 [label="entropy = 0.0\nsamples = 115\nvalue = [115, 0]"] ;
48 -> 49 ;
50 [label="X[2] <= 0.283\nentropy = 0.211\nsamples = 60\nvalue = [58, 2]"] ;
48 -> 50 ;
51 [label="entropy = 0.0\nsamples = 1\nvalue = [0, 1]"] ;
50 -> 51 ;
52 [label="X[1] <= 47.973\nentropy = 0.124\nsamples = 59\nvalue = [58, 1]"] ;
50 -> 52 ;
53 [label="entropy = 0.0\nsamples = 57\nvalue = [57, 0]"] ;
52 -> 53 ;
54 [label="X[2] <= 0.317\nentropy = 1.0\nsamples = 2\nvalue = [1, 1]"] ;
52 -> 54 ;
55 [label="entropy = 0.0\nsamples = 1\nvalue = [0, 1]"] ;
54 -> 55 ;
56 [label="entropy = 0.0\nsamples = 1\nvalue = [1, 0]"] ;
54 -> 56 ;
57 [label="X[5] <= 18.418\nentropy = 0.229\nsamples = 54\nvalue = [52, 2]"] ;
39 -> 57 ;
58 [label="entropy = 0.0\nsamples = 1\nvalue = [0, 1]"] ;
57 -> 58 ;
59 [label="X[0] <= 101.16\nentropy = 0.135\nsamples = 53\nvalue = [52, 1]"] ;
57 -> 59 ;
60 [label="X[1] <= 41.611\nentropy = 0.722\nsamples = 5\nvalue = [4, 1]"] ;
59 -> 60 ;
61 [label="entropy = 0.0\nsamples = 1\nvalue = [0, 1]"] ;
60 -> 61 ;
62 [label="entropy = 0.0\nsamples = 4\nvalue = [4, 0]"] ;
60 -> 62 ;
63 [label="entropy = 0.0\nsamples = 48\nvalue = [48, 0]"] ;
59 -> 63 ;
64 [label="X[5] <= 17.156\nentropy = 1.0\nsamples = 2\nvalue = [1, 1]"] ;
38 -> 64 ;
65 [label="entropy = 0.0\nsamples = 1\nvalue = [1, 0]"] ;
64 -> 65 ;
66 [label="entropy = 0.0\nsamples = 1\nvalue = [0, 1]"] ;
64 -> 66 ;
67 [label="entropy = 0.0\nsamples = 266\nvalue = [266, 0]"] ;
37 -> 67 ;
68 [label="X[5] <= 23.11\nentropy = 0.503\nsamples = 9\nvalue = [8, 1]"] ;
36 -> 68 ;
69 [label="entropy = 0.0\nsamples = 1\nvalue = [0, 1]"] ;
68 -> 69 ;
70 [label="entropy = 0.0\nsamples = 8\nvalue = [8, 0]"] ;
68 -> 70 ;
71 [label="entropy = 0.0\nsamples = 242\nvalue = [242, 0]"] ;
25 -> 71 ;
72 [label="entropy = 0.0\nsamples = 1\nvalue = [0, 1]"] ;
16 -> 72 ;
73 [label="X[5] <= 9.372\nentropy = 0.016\nsamples = 1334\nvalue = [1332, 2]"] ;
15 -> 73 ;
74 [label="X[5] <= 9.335\nentropy = 0.439\nsamples = 11\nvalue = [10, 1]"] ;
73 -> 74 ;
75 [label="entropy = 0.0\nsamples = 10\nvalue = [10, 0]"] ;
74 -> 75 ;
76 [label="entropy = 0.0\nsamples = 1\nvalue = [0, 1]"] ;
74 -> 76 ;
77 [label="X[2] <= 0.116\nentropy = 0.009\nsamples = 1323\nvalue = [1322, 1]"] ;
73 -> 77 ;
78 [label="X[2] <= 0.116\nentropy = 0.067\nsamples = 126\nvalue = [125, 1]"] ;
77 -> 78 ;
79 [label="entropy = 0.0\nsamples = 125\nvalue = [125, 0]"] ;
78 -> 79 ;
80 [label="entropy = 0.0\nsamples = 1\nvalue = [0, 1]"] ;
78 -> 80 ;
81 [label="entropy = 0.0\nsamples = 1197\nvalue = [1197, 0]"] ;
77 -> 81 ;
82 [label="X[7] <= 256.569\nentropy = 1.0\nsamples = 2\nvalue = [1, 1]"] ;
14 -> 82 ;
83 [label="entropy = 0.0\nsamples = 1\nvalue = [1, 0]"] ;
82 -> 83 ;
84 [label="entropy = 0.0\nsamples = 1\nvalue = [0, 1]"] ;
82 -> 84 ;
85 [label="entropy = 0.0\nsamples = 802\nvalue = [802, 0]"] ;
13 -> 85 ;
86 [label="X[5] <= 28.6\nentropy = 0.118\nsamples = 749\nvalue = [737, 12]"] ;
12 -> 86 ;
87 [label="entropy = 0.0\nsamples = 1\nvalue = [0, 1]"] ;
86 -> 87 ;
88 [label="X[6] <= 5.951\nentropy = 0.111\nsamples = 748\nvalue = [737, 11]"] ;
86 -> 88 ;
89 [label="X[0] <= 113.637\nentropy = 0.089\nsamples = 706\nvalue = [698, 8]"] ;
88 -> 89 ;
90 [label="entropy = 0.0\nsamples = 252\nvalue = [252, 0]"] ;
89 -> 90 ;
91 [label="X[0] <= 113.652\nentropy = 0.128\nsamples = 454\nvalue = [446, 8]"] ;
89 -> 91 ;
92 [label="entropy = 0.0\nsamples = 1\nvalue = [0, 1]"] ;
91 -> 92 ;
93 [label="X[5] <= 44.808\nentropy = 0.115\nsamples = 453\nvalue = [446, 7]"] ;
91 -> 93 ;
94 [label="X[6] <= 5.555\nentropy = 0.039\nsamples = 237\nvalue = [236, 1]"] ;
93 -> 94 ;
95 [label="entropy = 0.0\nsamples = 213\nvalue = [213, 0]"] ;
94 -> 95 ;
96 [label="X[6] <= 5.562\nentropy = 0.25\nsamples = 24\nvalue = [23, 1]"] ;
94 -> 96 ;
97 [label="entropy = 0.0\nsamples = 1\nvalue = [0, 1]"] ;
96 -> 97 ;
98 [label="entropy = 0.0\nsamples = 23\nvalue = [23, 0]"] ;
96 -> 98 ;
99 [label="X[4] <= 18.397\nentropy = 0.183\nsamples = 216\nvalue = [210, 6]"] ;
93 -> 99 ;
100 [label="X[2] <= 0.156\nentropy = 0.457\nsamples = 52\nvalue = [47, 5]"] ;
99 -> 100 ;
101 [label="entropy = 0.0\nsamples = 21\nvalue = [21, 0]"] ;
100 -> 101 ;
102 [label="X[2] <= 0.18\nentropy = 0.637\nsamples = 31\nvalue = [26, 5]"] ;
100 -> 102 ;
103 [label="X[0] <= 121.219\nentropy = 0.971\nsamples = 5\nvalue = [2, 3]"] ;
102 -> 103 ;
104 [label="entropy = 0.0\nsamples = 2\nvalue = [2, 0]"] ;
103 -> 104 ;
105 [label="entropy = 0.0\nsamples = 3\nvalue = [0, 3]"] ;
103 -> 105 ;
106 [label="X[4] <= 18.282\nentropy = 0.391\nsamples = 26\nvalue = [24, 2]"] ;
102 -> 106 ;
107 [label="X[1] <= 55.021\nentropy = 0.242\nsamples = 25\nvalue = [24, 1]"] ;
106 -> 107 ;
108 [label="entropy = 0.0\nsamples = 23\nvalue = [23, 0]"] ;
107 -> 108 ;
109 [label="X[2] <= 0.251\nentropy = 1.0\nsamples = 2\nvalue = [1, 1]"] ;
107 -> 109 ;
110 [label="entropy = 0.0\nsamples = 1\nvalue = [1, 0]"] ;
109 -> 110 ;
111 [label="entropy = 0.0\nsamples = 1\nvalue = [0, 1]"] ;
109 -> 111 ;
112 [label="entropy = 0.0\nsamples = 1\nvalue = [0, 1]"] ;
106 -> 112 ;
113 [label="X[0] <= 118.418\nentropy = 0.054\nsamples = 164\nvalue = [163, 1]"] ;
99 -> 113 ;
114 [label="X[0] <= 118.156\nentropy = 0.162\nsamples = 42\nvalue = [41, 1]"] ;
113 -> 114 ;
115 [label="entropy = 0.0\nsamples = 40\nvalue = [40, 0]"] ;
114 -> 115 ;
116 [label="X[3] <= -0.119\nentropy = 1.0\nsamples = 2\nvalue = [1, 1]"] ;
114 -> 116 ;
117 [label="entropy = 0.0\nsamples = 1\nvalue = [1, 0]"] ;
116 -> 117 ;
118 [label="entropy = 0.0\nsamples = 1\nvalue = [0, 1]"] ;
116 -> 118 ;
119 [label="entropy = 0.0\nsamples = 122\nvalue = [122, 0]"] ;
113 -> 119 ;
120 [label="X[6] <= 6.018\nentropy = 0.371\nsamples = 42\nvalue = [39, 3]"] ;
88 -> 120 ;
121 [label="X[0] <= 104.371\nentropy = 0.811\nsamples = 4\nvalue = [1, 3]"] ;
120 -> 121 ;
122 [label="entropy = 0.0\nsamples = 1\nvalue = [1, 0]"] ;
121 -> 122 ;
123 [label="entropy = 0.0\nsamples = 3\nvalue = [0, 3]"] ;
121 -> 123 ;
124 [label="entropy = 0.0\nsamples = 38\nvalue = [38, 0]"] ;
120 -> 124 ;
125 [label="X[5] <= 38.044\nentropy = 0.254\nsamples = 3868\nvalue = [3703, 165]"] ;
1 -> 125 ;
126 [label="X[5] <= 19.578\nentropy = 0.16\nsamples = 3549\nvalue = [3466, 83]"] ;
125 -> 126 ;
127 [label="X[5] <= 11.866\nentropy = 0.096\nsamples = 2496\nvalue = [2465, 31]"] ;
126 -> 127 ;
128 [label="entropy = 0.0\nsamples = 374\nvalue = [374, 0]"] ;
127 -> 128 ;
129 [label="X[4] <= 0.96\nentropy = 0.11\nsamples = 2122\nvalue = [2091, 31]"] ;
127 -> 129 ;
130 [label="X[7] <= 278.636\nentropy = 0.663\nsamples = 29\nvalue = [24, 5]"] ;
129 -> 130 ;
131 [label="X[7] <= 273.986\nentropy = 0.961\nsamples = 13\nvalue = [8, 5]"] ;
130 -> 131 ;
132 [label="X[2] <= 0.361\nentropy = 0.722\nsamples = 10\nvalue = [8, 2]"] ;
131 -> 132 ;
133 [label="entropy = 0.0\nsamples = 1\nvalue = [0, 1]"] ;
132 -> 133 ;
134 [label="X[5] <= 12.119\nentropy = 0.503\nsamples = 9\nvalue = [8, 1]"] ;
132 -> 134 ;
135 [label="entropy = 0.0\nsamples = 1\nvalue = [0, 1]"] ;
134 -> 135 ;
136 [label="entropy = 0.0\nsamples = 8\nvalue = [8, 0]"] ;
134 -> 136 ;
137 [label="entropy = 0.0\nsamples = 3\nvalue = [0, 3]"] ;
131 -> 137 ;
138 [label="entropy = 0.0\nsamples = 16\nvalue = [16, 0]"] ;
130 -> 138 ;
139 [label="X[5] <= 11.878\nentropy = 0.096\nsamples = 2093\nvalue = [2067, 26]"] ;
129 -> 139 ;
140 [label="entropy = 0.0\nsamples = 1\nvalue = [0, 1]"] ;
139 -> 140 ;
141 [label="X[2] <= 0.768\nentropy = 0.093\nsamples = 2092\nvalue = [2067, 25]"] ;
139 -> 141 ;
142 [label="X[0] <= 97.996\nentropy = 0.078\nsamples = 1885\nvalue = [1867, 18]"] ;
141 -> 142 ;
143 [label="X[5] <= 12.076\nentropy = 0.026\nsamples = 778\nvalue = [776, 2]"] ;
142 -> 143 ;
144 [label="X[5] <= 12.054\nentropy = 0.31\nsamples = 18\nvalue = [17, 1]"] ;
143 -> 144 ;
145 [label="entropy = 0.0\nsamples = 17\nvalue = [17, 0]"] ;
144 -> 145 ;
146 [label="entropy = 0.0\nsamples = 1\nvalue = [0, 1]"] ;
144 -> 146 ;
147 [label="X[5] <= 18.026\nentropy = 0.014\nsamples = 760\nvalue = [759, 1]"] ;
143 -> 147 ;
148 [label="entropy = 0.0\nsamples = 646\nvalue = [646, 0]"] ;
147 -> 148 ;
149 [label="X[5] <= 18.028\nentropy = 0.073\nsamples = 114\nvalue = [113, 1]"] ;
147 -> 149 ;
150 [label="entropy = 0.0\nsamples = 1\nvalue = [0, 1]"] ;
149 -> 150 ;
151 [label="entropy = 0.0\nsamples = 113\nvalue = [113, 0]"] ;
149 -> 151 ;
152 [label="X[0] <= 99.297\nentropy = 0.109\nsamples = 1107\nvalue = [1091, 16]"] ;
142 -> 152 ;
153 [label="X[0] <= 99.273\nentropy = 0.326\nsamples = 84\nvalue = [79, 5]"] ;
152 -> 153 ;
154 [label="X[6] <= 13.373\nentropy = 0.279\nsamples = 83\nvalue = [79, 4]"] ;
153 -> 154 ;
155 [label="X[5] <= 17.519\nentropy = 0.181\nsamples = 73\nvalue = [71, 2]"] ;
154 -> 155 ;
156 [label="entropy = 0.0\nsamples = 56\nvalue = [56, 0]"] ;
155 -> 156 ;
157 [label="X[5] <= 17.582\nentropy = 0.523\nsamples = 17\nvalue = [15, 2]"] ;
155 -> 157 ;
158 [label="entropy = 0.0\nsamples = 1\nvalue = [0, 1]"] ;
157 -> 158 ;
159 [label="X[5] <= 19.24\nentropy = 0.337\nsamples = 16\nvalue = [15, 1]"] ;
157 -> 159 ;
160 [label="entropy = 0.0\nsamples = 14\nvalue = [14, 0]"] ;
159 -> 160 ;
161 [label="X[4] <= 3.014\nentropy = 1.0\nsamples = 2\nvalue = [1, 1]"] ;
159 -> 161 ;
162 [label="entropy = 0.0\nsamples = 1\nvalue = [1, 0]"] ;
161 -> 162 ;
163 [label="entropy = 0.0\nsamples = 1\nvalue = [0, 1]"] ;
161 -> 163 ;
164 [label="X[0] <= 98.219\nentropy = 0.722\nsamples = 10\nvalue = [8, 2]"] ;
154 -> 164 ;
165 [label="entropy = 0.0\nsamples = 2\nvalue = [0, 2]"] ;
164 -> 165 ;
166 [label="entropy = 0.0\nsamples = 8\nvalue = [8, 0]"] ;
164 -> 166 ;
167 [label="entropy = 0.0\nsamples = 1\nvalue = [0, 1]"] ;
153 -> 167 ;
168 [label="X[5] <= 15.009\nentropy = 0.086\nsamples = 1023\nvalue = [1012, 11]"] ;
152 -> 168 ;
169 [label="X[1] <= 51.841\nentropy = 0.024\nsamples = 431\nvalue = [430, 1]"] ;
168 -> 169 ;
170 [label="entropy = 0.0\nsamples = 388\nvalue = [388, 0]"] ;
169 -> 170 ;
171 [label="X[1] <= 51.913\nentropy = 0.159\nsamples = 43\nvalue = [42, 1]"] ;
169 -> 171 ;
172 [label="entropy = 0.0\nsamples = 1\nvalue = [0, 1]"] ;
171 -> 172 ;
173 [label="entropy = 0.0\nsamples = 42\nvalue = [42, 0]"] ;
171 -> 173 ;
174 [label="X[5] <= 15.032\nentropy = 0.124\nsamples = 592\nvalue = [582, 10]"] ;
168 -> 174 ;
175 [label="X[2] <= 0.42\nentropy = 0.971\nsamples = 5\nvalue = [3, 2]"] ;
174 -> 175 ;
176 [label="entropy = 0.0\nsamples = 2\nvalue = [0, 2]"] ;
175 -> 176 ;
177 [label="entropy = 0.0\nsamples = 3\nvalue = [3, 0]"] ;
175 -> 177 ;
178 [label="X[6] <= 8.466\nentropy = 0.104\nsamples = 587\nvalue = [579, 8]"] ;
174 -> 178 ;
179 [label="entropy = 0.0\nsamples = 164\nvalue = [164, 0]"] ;
178 -> 179 ;
180 [label="X[6] <= 8.469\nentropy = 0.135\nsamples = 423\nvalue = [415, 8]"] ;
178 -> 180 ;
181 [label="entropy = 0.0\nsamples = 1\nvalue = [0, 1]"] ;
180 -> 181 ;
182 [label="X[1] <= 48.88\nentropy = 0.122\nsamples = 422\nvalue = [415, 7]"] ;
180 -> 182 ;
183 [label="X[1] <= 48.827\nentropy = 0.154\nsamples = 315\nvalue = [308, 7]"] ;
182 -> 183 ;
184 [label="X[6] <= 10.144\nentropy = 0.136\nsamples = 314\nvalue = [308, 6]"] ;
183 -> 184 ;
185 [label="X[3] <= -0.018\nentropy = 0.047\nsamples = 191\nvalue = [190, 1]"] ;
184 -> 185 ;
186 [label="X[7] <= 90.726\nentropy = 0.918\nsamples = 3\nvalue = [2, 1]"] ;
185 -> 186 ;
187 [label="entropy = 0.0\nsamples = 1\nvalue = [0, 1]"] ;
186 -> 187 ;
188 [label="entropy = 0.0\nsamples = 2\nvalue = [2, 0]"] ;
186 -> 188 ;
189 [label="entropy = 0.0\nsamples = 188\nvalue = [188, 0]"] ;
185 -> 189 ;
190 [label="X[7] <= 120.619\nentropy = 0.245\nsamples = 123\nvalue = [118, 5]"] ;
184 -> 190 ;
191 [label="X[6] <= 10.169\nentropy = 0.811\nsamples = 12\nvalue = [9, 3]"] ;
190 -> 191 ;
192 [label="entropy = 0.0\nsamples = 1\nvalue = [0, 1]"] ;
191 -> 192 ;
193 [label="X[6] <= 10.41\nentropy = 0.684\nsamples = 11\nvalue = [9, 2]"] ;
191 -> 193 ;
194 [label="entropy = 0.0\nsamples = 7\nvalue = [7, 0]"] ;
193 -> 194 ;
195 [label="X[4] <= 1.945\nentropy = 1.0\nsamples = 4\nvalue = [2, 2]"] ;
193 -> 195 ;
196 [label="entropy = 0.0\nsamples = 2\nvalue = [0, 2]"] ;
195 -> 196 ;
197 [label="entropy = 0.0\nsamples = 2\nvalue = [2, 0]"] ;
195 -> 197 ;
198 [label="X[1] <= 45.404\nentropy = 0.13\nsamples = 111\nvalue = [109, 2]"] ;
190 -> 198 ;
199 [label="entropy = 0.0\nsamples = 73\nvalue = [73, 0]"] ;
198 -> 199 ;
200 [label="X[1] <= 45.5\nentropy = 0.297\nsamples = 38\nvalue = [36, 2]"] ;
198 -> 200 ;
201 [label="entropy = 0.0\nsamples = 1\nvalue = [0, 1]"] ;
200 -> 201 ;
202 [label="X[0] <= 114.465\nentropy = 0.179\nsamples = 37\nvalue = [36, 1]"] ;
200 -> 202 ;
203 [label="entropy = 0.0\nsamples = 30\nvalue = [30, 0]"] ;
202 -> 203 ;
204 [label="X[0] <= 114.676\nentropy = 0.592\nsamples = 7\nvalue = [6, 1]"] ;
202 -> 204 ;
205 [label="entropy = 0.0\nsamples = 1\nvalue = [0, 1]"] ;
204 -> 205 ;
206 [label="entropy = 0.0\nsamples = 6\nvalue = [6, 0]"] ;
204 -> 206 ;
207 [label="entropy = 0.0\nsamples = 1\nvalue = [0, 1]"] ;
183 -> 207 ;
208 [label="entropy = 0.0\nsamples = 107\nvalue = [107, 0]"] ;
182 -> 208 ;
209 [label="X[0] <= 88.984\nentropy = 0.213\nsamples = 207\nvalue = [200, 7]"] ;
141 -> 209 ;
210 [label="X[7] <= 71.964\nentropy = 0.057\nsamples = 151\nvalue = [150, 1]"] ;
209 -> 210 ;
211 [label="X[5] <= 17.828\nentropy = 0.544\nsamples = 8\nvalue = [7, 1]"] ;
210 -> 211 ;
212 [label="entropy = 0.0\nsamples = 1\nvalue = [0, 1]"] ;
211 -> 212 ;
213 [label="entropy = 0.0\nsamples = 7\nvalue = [7, 0]"] ;
211 -> 213 ;
214 [label="entropy = 0.0\nsamples = 143\nvalue = [143, 0]"] ;
210 -> 214 ;
215 [label="X[6] <= 9.452\nentropy = 0.491\nsamples = 56\nvalue = [50, 6]"] ;
209 -> 215 ;
216 [label="entropy = 0.0\nsamples = 20\nvalue = [20, 0]"] ;
215 -> 216 ;
217 [label="X[6] <= 9.549\nentropy = 0.65\nsamples = 36\nvalue = [30, 6]"] ;
215 -> 217 ;
218 [label="entropy = 0.0\nsamples = 2\nvalue = [0, 2]"] ;
217 -> 218 ;
219 [label="X[0] <= 89.996\nentropy = 0.523\nsamples = 34\nvalue = [30, 4]"] ;
217 -> 219 ;
220 [label="entropy = 0.0\nsamples = 2\nvalue = [0, 2]"] ;
219 -> 220 ;
221 [label="X[1] <= 47.551\nentropy = 0.337\nsamples = 32\nvalue = [30, 2]"] ;
219 -> 221 ;
222 [label="entropy = 0.0\nsamples = 26\nvalue = [26, 0]"] ;
221 -> 222 ;
223 [label="X[2] <= 0.852\nentropy = 0.918\nsamples = 6\nvalue = [4, 2]"] ;
221 -> 223 ;
224 [label="entropy = 0.0\nsamples = 4\nvalue = [4, 0]"] ;
223 -> 224 ;
225 [label="entropy = 0.0\nsamples = 2\nvalue = [0, 2]"] ;
223 -> 225 ;
226 [label="X[2] <= 0.764\nentropy = 0.284\nsamples = 1053\nvalue = [1001, 52]"] ;
126 -> 226 ;
227 [label="X[0] <= 99.844\nentropy = 0.211\nsamples = 901\nvalue = [871, 30]"] ;
226 -> 227 ;
228 [label="X[0] <= 91.441\nentropy = 0.082\nsamples = 392\nvalue = [388, 4]"] ;
227 -> 228 ;
229 [label="entropy = 0.0\nsamples = 147\nvalue = [147, 0]"] ;
228 -> 229 ;
230 [label="X[0] <= 91.609\nentropy = 0.12\nsamples = 245\nvalue = [241, 4]"] ;
228 -> 230 ;
231 [label="entropy = 0.0\nsamples = 1\nvalue = [0, 1]"] ;
230 -> 231 ;
232 [label="X[0] <= 96.789\nentropy = 0.096\nsamples = 244\nvalue = [241, 3]"] ;
230 -> 232 ;
233 [label="X[0] <= 96.68\nentropy = 0.15\nsamples = 139\nvalue = [136, 3]"] ;
232 -> 233 ;
234 [label="X[2] <= 0.369\nentropy = 0.109\nsamples = 138\nvalue = [136, 2]"] ;
233 -> 234 ;
235 [label="X[4] <= 3.098\nentropy = 0.811\nsamples = 4\nvalue = [3, 1]"] ;
234 -> 235 ;
236 [label="entropy = 0.0\nsamples = 1\nvalue = [0, 1]"] ;
235 -> 236 ;
237 [label="entropy = 0.0\nsamples = 3\nvalue = [3, 0]"] ;
235 -> 237 ;
238 [label="X[1] <= 46.263\nentropy = 0.063\nsamples = 134\nvalue = [133, 1]"] ;
234 -> 238 ;
239 [label="entropy = 0.0\nsamples = 109\nvalue = [109, 0]"] ;
238 -> 239 ;
240 [label="X[1] <= 46.311\nentropy = 0.242\nsamples = 25\nvalue = [24, 1]"] ;
238 -> 240 ;
241 [label="entropy = 0.0\nsamples = 1\nvalue = [0, 1]"] ;
240 -> 241 ;
242 [label="entropy = 0.0\nsamples = 24\nvalue = [24, 0]"] ;
240 -> 242 ;
243 [label="entropy = 0.0\nsamples = 1\nvalue = [0, 1]"] ;
233 -> 243 ;
244 [label="entropy = 0.0\nsamples = 105\nvalue = [105, 0]"] ;
232 -> 244 ;
245 [label="X[3] <= 0.13\nentropy = 0.291\nsamples = 509\nvalue = [483, 26]"] ;
227 -> 245 ;
246 [label="X[2] <= 0.346\nentropy = 0.105\nsamples = 145\nvalue = [143, 2]"] ;
245 -> 246 ;
247 [label="entropy = 0.0\nsamples = 1\nvalue = [0, 1]"] ;
246 -> 247 ;
248 [label="X[7] <= 91.91\nentropy = 0.06\nsamples = 144\nvalue = [143, 1]"] ;
246 -> 248 ;
249 [label="entropy = 0.0\nsamples = 137\nvalue = [137, 0]"] ;
248 -> 249 ;
250 [label="X[6] <= 9.31\nentropy = 0.592\nsamples = 7\nvalue = [6, 1]"] ;
248 -> 250 ;
251 [label="entropy = 0.0\nsamples = 1\nvalue = [0, 1]"] ;
250 -> 251 ;
252 [label="entropy = 0.0\nsamples = 6\nvalue = [6, 0]"] ;
250 -> 252 ;
253 [label="X[3] <= 0.138\nentropy = 0.351\nsamples = 364\nvalue = [340, 24]"] ;
245 -> 253 ;
254 [label="X[2] <= 0.396\nentropy = 0.918\nsamples = 3\nvalue = [1, 2]"] ;
253 -> 254 ;
255 [label="entropy = 0.0\nsamples = 2\nvalue = [0, 2]"] ;
254 -> 255 ;
256 [label="entropy = 0.0\nsamples = 1\nvalue = [1, 0]"] ;
254 -> 256 ;
257 [label="X[0] <= 100.094\nentropy = 0.331\nsamples = 361\nvalue = [339, 22]"] ;
253 -> 257 ;
258 [label="X[2] <= 0.556\nentropy = 0.918\nsamples = 9\nvalue = [6, 3]"] ;
257 -> 258 ;
259 [label="entropy = 0.0\nsamples = 2\nvalue = [0, 2]"] ;
258 -> 259 ;
260 [label="X[3] <= 0.246\nentropy = 0.592\nsamples = 7\nvalue = [6, 1]"] ;
258 -> 260 ;
261 [label="entropy = 0.0\nsamples = 1\nvalue = [0, 1]"] ;
260 -> 261 ;
262 [label="entropy = 0.0\nsamples = 6\nvalue = [6, 0]"] ;
260 -> 262 ;
263 [label="X[3] <= 0.264\nentropy = 0.303\nsamples = 352\nvalue = [333, 19]"] ;
257 -> 263 ;
264 [label="entropy = 0.0\nsamples = 45\nvalue = [45, 0]"] ;
263 -> 264 ;
265 [label="X[3] <= 0.268\nentropy = 0.335\nsamples = 307\nvalue = [288, 19]"] ;
263 -> 265 ;
266 [label="entropy = 0.0\nsamples = 1\nvalue = [0, 1]"] ;
265 -> 266 ;
267 [label="X[3] <= 0.528\nentropy = 0.323\nsamples = 306\nvalue = [288, 18]"] ;
265 -> 267 ;
268 [label="X[5] <= 26.113\nentropy = 0.158\nsamples = 87\nvalue = [85, 2]"] ;
267 -> 268 ;
269 [label="entropy = 0.0\nsamples = 59\nvalue = [59, 0]"] ;
268 -> 269 ;
270 [label="X[5] <= 26.182\nentropy = 0.371\nsamples = 28\nvalue = [26, 2]"] ;
268 -> 270 ;
271 [label="entropy = 0.0\nsamples = 1\nvalue = [0, 1]"] ;
270 -> 271 ;
272 [label="X[0] <= 125.652\nentropy = 0.229\nsamples = 27\nvalue = [26, 1]"] ;
270 -> 272 ;
273 [label="entropy = 0.0\nsamples = 24\nvalue = [24, 0]"] ;
272 -> 273 ;
274 [label="X[5] <= 28.914\nentropy = 0.918\nsamples = 3\nvalue = [2, 1]"] ;
272 -> 274 ;
275 [label="entropy = 0.0\nsamples = 1\nvalue = [0, 1]"] ;
274 -> 275 ;
276 [label="entropy = 0.0\nsamples = 2\nvalue = [2, 0]"] ;
274 -> 276 ;
277 [label="X[3] <= 0.534\nentropy = 0.377\nsamples = 219\nvalue = [203, 16]"] ;
267 -> 277 ;
278 [label="entropy = 0.0\nsamples = 1\nvalue = [0, 1]"] ;
277 -> 278 ;
279 [label="X[1] <= 37.442\nentropy = 0.361\nsamples = 218\nvalue = [203, 15]"] ;
277 -> 279 ;
280 [label="entropy = 0.0\nsamples = 24\nvalue = [24, 0]"] ;
279 -> 280 ;
281 [label="X[1] <= 37.597\nentropy = 0.393\nsamples = 194\nvalue = [179, 15]"] ;
279 -> 281 ;
282 [label="entropy = 0.0\nsamples = 2\nvalue = [0, 2]"] ;
281 -> 282 ;
283 [label="X[1] <= 42.546\nentropy = 0.357\nsamples = 192\nvalue = [179, 13]"] ;
281 -> 283 ;
284 [label="X[0] <= 106.809\nentropy = 0.233\nsamples = 105\nvalue = [101, 4]"] ;
283 -> 284 ;
285 [label="entropy = 0.0\nsamples = 55\nvalue = [55, 0]"] ;
284 -> 285 ;
286 [label="X[0] <= 107.016\nentropy = 0.402\nsamples = 50\nvalue = [46, 4]"] ;
284 -> 286 ;
287 [label="entropy = 0.0\nsamples = 1\nvalue = [0, 1]"] ;
286 -> 287 ;
288 [label="X[0] <= 110.625\nentropy = 0.332\nsamples = 49\nvalue = [46, 3]"] ;
286 -> 288 ;
289 [label="entropy = 0.0\nsamples = 23\nvalue = [23, 0]"] ;
288 -> 289 ;
290 [label="X[0] <= 112.551\nentropy = 0.516\nsamples = 26\nvalue = [23, 3]"] ;
288 -> 290 ;
291 [label="X[4] <= 6.842\nentropy = 0.985\nsamples = 7\nvalue = [4, 3]"] ;
290 -> 291 ;
292 [label="X[5] <= 20.57\nentropy = 0.811\nsamples = 4\nvalue = [1, 3]"] ;
291 -> 292 ;
293 [label="entropy = 0.0\nsamples = 1\nvalue = [1, 0]"] ;
292 -> 293 ;
294 [label="entropy = 0.0\nsamples = 3\nvalue = [0, 3]"] ;
292 -> 294 ;
295 [label="entropy = 0.0\nsamples = 3\nvalue = [3, 0]"] ;
291 -> 295 ;
296 [label="entropy = 0.0\nsamples = 19\nvalue = [19, 0]"] ;
290 -> 296 ;
297 [label="X[1] <= 42.763\nentropy = 0.48\nsamples = 87\nvalue = [78, 9]"] ;
283 -> 297 ;
298 [label="X[0] <= 104.867\nentropy = 0.918\nsamples = 3\nvalue = [1, 2]"] ;
297 -> 298 ;
299 [label="entropy = 0.0\nsamples = 2\nvalue = [0, 2]"] ;
298 -> 299 ;
300 [label="entropy = 0.0\nsamples = 1\nvalue = [1, 0]"] ;
298 -> 300 ;
301 [label="X[1] <= 43.907\nentropy = 0.414\nsamples = 84\nvalue = [77, 7]"] ;
297 -> 301 ;
302 [label="entropy = 0.0\nsamples = 23\nvalue = [23, 0]"] ;
301 -> 302 ;
303 [label="X[4] <= 2.378\nentropy = 0.514\nsamples = 61\nvalue = [54, 7]"] ;
301 -> 303 ;
304 [label="entropy = 0.0\nsamples = 1\nvalue = [0, 1]"] ;
303 -> 304 ;
305 [label="X[2] <= 0.467\nentropy = 0.469\nsamples = 60\nvalue = [54, 6]"] ;
303 -> 305 ;
306 [label="entropy = 0.0\nsamples = 22\nvalue = [22, 0]"] ;
305 -> 306 ;
307 [label="X[2] <= 0.604\nentropy = 0.629\nsamples = 38\nvalue = [32, 6]"] ;
305 -> 307 ;
308 [label="X[6] <= 6.763\nentropy = 0.764\nsamples = 27\nvalue = [21, 6]"] ;
307 -> 308 ;
309 [label="X[4] <= 6.035\nentropy = 0.961\nsamples = 13\nvalue = [8, 5]"] ;
308 -> 309 ;
310 [label="X[3] <= 0.736\nentropy = 0.954\nsamples = 8\nvalue = [3, 5]"] ;
309 -> 310 ;
311 [label="X[0] <= 101.621\nentropy = 0.971\nsamples = 5\nvalue = [3, 2]"] ;
310 -> 311 ;
312 [label="entropy = 0.0\nsamples = 2\nvalue = [0, 2]"] ;
311 -> 312 ;
313 [label="entropy = 0.0\nsamples = 3\nvalue = [3, 0]"] ;
311 -> 313 ;
314 [label="entropy = 0.0\nsamples = 3\nvalue = [0, 3]"] ;
310 -> 314 ;
315 [label="entropy = 0.0\nsamples = 5\nvalue = [5, 0]"] ;
309 -> 315 ;
316 [label="X[7] <= 87.07\nentropy = 0.371\nsamples = 14\nvalue = [13, 1]"] ;
308 -> 316 ;
317 [label="entropy = 0.0\nsamples = 12\nvalue = [12, 0]"] ;
316 -> 317 ;
318 [label="X[1] <= 46.298\nentropy = 1.0\nsamples = 2\nvalue = [1, 1]"] ;
316 -> 318 ;
319 [label="entropy = 0.0\nsamples = 1\nvalue = [0, 1]"] ;
318 -> 319 ;
320 [label="entropy = 0.0\nsamples = 1\nvalue = [1, 0]"] ;
318 -> 320 ;
321 [label="entropy = 0.0\nsamples = 11\nvalue = [11, 0]"] ;
307 -> 321 ;
322 [label="X[1] <= 40.297\nentropy = 0.597\nsamples = 152\nvalue = [130, 22]"] ;
226 -> 322 ;
323 [label="X[3] <= 4.112\nentropy = 0.209\nsamples = 91\nvalue = [88, 3]"] ;
322 -> 323 ;
324 [label="entropy = 0.0\nsamples = 77\nvalue = [77, 0]"] ;
323 -> 324 ;
325 [label="X[1] <= 34.398\nentropy = 0.75\nsamples = 14\nvalue = [11, 3]"] ;
323 -> 325 ;
326 [label="entropy = 0.0\nsamples = 11\nvalue = [11, 0]"] ;
325 -> 326 ;
327 [label="entropy = 0.0\nsamples = 3\nvalue = [0, 3]"] ;
325 -> 327 ;
328 [label="X[5] <= 27.671\nentropy = 0.895\nsamples = 61\nvalue = [42, 19]"] ;
322 -> 328 ;
329 [label="X[4] <= 2.615\nentropy = 0.705\nsamples = 47\nvalue = [38, 9]"] ;
328 -> 329 ;
330 [label="entropy = 0.0\nsamples = 3\nvalue = [0, 3]"] ;
329 -> 330 ;
331 [label="X[0] <= 97.156\nentropy = 0.575\nsamples = 44\nvalue = [38, 6]"] ;
329 -> 331 ;
332 [label="X[0] <= 96.203\nentropy = 0.75\nsamples = 28\nvalue = [22, 6]"] ;
331 -> 332 ;
333 [label="X[3] <= 1.343\nentropy = 0.619\nsamples = 26\nvalue = [22, 4]"] ;
332 -> 333 ;
334 [label="X[3] <= 1.079\nentropy = 0.89\nsamples = 13\nvalue = [9, 4]"] ;
333 -> 334 ;
335 [label="entropy = 0.0\nsamples = 7\nvalue = [7, 0]"] ;
334 -> 335 ;
336 [label="X[5] <= 23.815\nentropy = 0.918\nsamples = 6\nvalue = [2, 4]"] ;
334 -> 336 ;
337 [label="X[4] <= 3.432\nentropy = 0.722\nsamples = 5\nvalue = [1, 4]"] ;
336 -> 337 ;
338 [label="X[6] <= 8.404\nentropy = 1.0\nsamples = 2\nvalue = [1, 1]"] ;
337 -> 338 ;
339 [label="entropy = 0.0\nsamples = 1\nvalue = [1, 0]"] ;
338 -> 339 ;
340 [label="entropy = 0.0\nsamples = 1\nvalue = [0, 1]"] ;
338 -> 340 ;
341 [label="entropy = 0.0\nsamples = 3\nvalue = [0, 3]"] ;
337 -> 341 ;
342 [label="entropy = 0.0\nsamples = 1\nvalue = [1, 0]"] ;
336 -> 342 ;
343 [label="entropy = 0.0\nsamples = 13\nvalue = [13, 0]"] ;
333 -> 343 ;
344 [label="entropy = 0.0\nsamples = 2\nvalue = [0, 2]"] ;
332 -> 344 ;
345 [label="entropy = 0.0\nsamples = 16\nvalue = [16, 0]"] ;
331 -> 345 ;
346 [label="X[5] <= 34.543\nentropy = 0.863\nsamples = 14\nvalue = [4, 10]"] ;
328 -> 346 ;
347 [label="X[1] <= 42.598\nentropy = 0.65\nsamples = 12\nvalue = [2, 10]"] ;
346 -> 347 ;
348 [label="X[2] <= 0.904\nentropy = 0.918\nsamples = 3\nvalue = [2, 1]"] ;
347 -> 348 ;
349 [label="entropy = 0.0\nsamples = 2\nvalue = [2, 0]"] ;
348 -> 349 ;
350 [label="entropy = 0.0\nsamples = 1\nvalue = [0, 1]"] ;
348 -> 350 ;
351 [label="entropy = 0.0\nsamples = 9\nvalue = [0, 9]"] ;
347 -> 351 ;
352 [label="entropy = 0.0\nsamples = 2\nvalue = [2, 0]"] ;
346 -> 352 ;
353 [label="X[2] <= 0.54\nentropy = 0.822\nsamples = 319\nvalue = [237, 82]"] ;
125 -> 353 ;
354 [label="X[6] <= 0.445\nentropy = 0.461\nsamples = 154\nvalue = [139, 15]"] ;
353 -> 354 ;
355 [label="entropy = 0.0\nsamples = 38\nvalue = [38, 0]"] ;
354 -> 355 ;
356 [label="X[0] <= 100.645\nentropy = 0.556\nsamples = 116\nvalue = [101, 15]"] ;
354 -> 356 ;
357 [label="entropy = 0.0\nsamples = 29\nvalue = [29, 0]"] ;
356 -> 357 ;
358 [label="X[2] <= 0.442\nentropy = 0.663\nsamples = 87\nvalue = [72, 15]"] ;
356 -> 358 ;
359 [label="X[7] <= 7.654\nentropy = 0.337\nsamples = 48\nvalue = [45, 3]"] ;
358 -> 359 ;
360 [label="entropy = 0.0\nsamples = 26\nvalue = [26, 0]"] ;
359 -> 360 ;
361 [label="X[4] <= 16.728\nentropy = 0.575\nsamples = 22\nvalue = [19, 3]"] ;
359 -> 361 ;
362 [label="X[2] <= 0.353\nentropy = 0.454\nsamples = 21\nvalue = [19, 2]"] ;
361 -> 362 ;
363 [label="entropy = 0.0\nsamples = 1\nvalue = [0, 1]"] ;
362 -> 363 ;
364 [label="X[3] <= -0.372\nentropy = 0.286\nsamples = 20\nvalue = [19, 1]"] ;
362 -> 364 ;
365 [label="entropy = 0.0\nsamples = 1\nvalue = [0, 1]"] ;
364 -> 365 ;
366 [label="entropy = 0.0\nsamples = 19\nvalue = [19, 0]"] ;
364 -> 366 ;
367 [label="entropy = 0.0\nsamples = 1\nvalue = [0, 1]"] ;
361 -> 367 ;
368 [label="X[5] <= 51.28\nentropy = 0.89\nsamples = 39\nvalue = [27, 12]"] ;
358 -> 368 ;
369 [label="X[4] <= 9.505\nentropy = 0.629\nsamples = 19\nvalue = [16, 3]"] ;
368 -> 369 ;
370 [label="X[7] <= 22.724\nentropy = 0.918\nsamples = 3\nvalue = [1, 2]"] ;
369 -> 370 ;
371 [label="entropy = 0.0\nsamples = 2\nvalue = [0, 2]"] ;
370 -> 371 ;
372 [label="entropy = 0.0\nsamples = 1\nvalue = [1, 0]"] ;
370 -> 372 ;
373 [label="X[2] <= 0.475\nentropy = 0.337\nsamples = 16\nvalue = [15, 1]"] ;
369 -> 373 ;
374 [label="X[2] <= 0.468\nentropy = 0.811\nsamples = 4\nvalue = [3, 1]"] ;
373 -> 374 ;
375 [label="entropy = 0.0\nsamples = 3\nvalue = [3, 0]"] ;
374 -> 375 ;
376 [label="entropy = 0.0\nsamples = 1\nvalue = [0, 1]"] ;
374 -> 376 ;
377 [label="entropy = 0.0\nsamples = 12\nvalue = [12, 0]"] ;
373 -> 377 ;
378 [label="X[2] <= 0.508\nentropy = 0.993\nsamples = 20\nvalue = [11, 9]"] ;
368 -> 378 ;
379 [label="X[4] <= 58.322\nentropy = 1.0\nsamples = 18\nvalue = [9, 9]"] ;
378 -> 379 ;
380 [label="X[5] <= 61.353\nentropy = 0.971\nsamples = 15\nvalue = [9, 6]"] ;
379 -> 380 ;
381 [label="X[0] <= 109.563\nentropy = 0.994\nsamples = 11\nvalue = [5, 6]"] ;
380 -> 381 ;
382 [label="X[5] <= 60.787\nentropy = 0.722\nsamples = 5\nvalue = [4, 1]"] ;
381 -> 382 ;
383 [label="entropy = 0.0\nsamples = 4\nvalue = [4, 0]"] ;
382 -> 383 ;
384 [label="entropy = 0.0\nsamples = 1\nvalue = [0, 1]"] ;
382 -> 384 ;
385 [label="X[3] <= -0.121\nentropy = 0.65\nsamples = 6\nvalue = [1, 5]"] ;
381 -> 385 ;
386 [label="entropy = 0.0\nsamples = 1\nvalue = [1, 0]"] ;
385 -> 386 ;
387 [label="entropy = 0.0\nsamples = 5\nvalue = [0, 5]"] ;
385 -> 387 ;
388 [label="entropy = 0.0\nsamples = 4\nvalue = [4, 0]"] ;
380 -> 388 ;
389 [label="entropy = 0.0\nsamples = 3\nvalue = [0, 3]"] ;
379 -> 389 ;
390 [label="entropy = 0.0\nsamples = 2\nvalue = [2, 0]"] ;
378 -> 390 ;
391 [label="X[3] <= 2.076\nentropy = 0.974\nsamples = 165\nvalue = [98, 67]"] ;
353 -> 391 ;
392 [label="X[2] <= 0.82\nentropy = 0.99\nsamples = 152\nvalue = [85, 67]"] ;
391 -> 392 ;
393 [label="X[3] <= 1.042\nentropy = 0.911\nsamples = 95\nvalue = [64, 31]"] ;
392 -> 393 ;
394 [label="X[6] <= 2.353\nentropy = 0.982\nsamples = 64\nvalue = [37, 27]"] ;
393 -> 394 ;
395 [label="X[7] <= -0.473\nentropy = 0.868\nsamples = 38\nvalue = [27, 11]"] ;
394 -> 395 ;
396 [label="X[2] <= 0.666\nentropy = 0.998\nsamples = 19\nvalue = [9, 10]"] ;
395 -> 396 ;
397 [label="X[3] <= 0.046\nentropy = 0.881\nsamples = 10\nvalue = [7, 3]"] ;
396 -> 397 ;
398 [label="entropy = 0.0\nsamples = 3\nvalue = [0, 3]"] ;
397 -> 398 ;
399 [label="entropy = 0.0\nsamples = 7\nvalue = [7, 0]"] ;
397 -> 399 ;
400 [label="X[5] <= 89.277\nentropy = 0.764\nsamples = 9\nvalue = [2, 7]"] ;
396 -> 400 ;
401 [label="X[4] <= 72.751\nentropy = 0.918\nsamples = 3\nvalue = [2, 1]"] ;
400 -> 401 ;
402 [label="entropy = 0.0\nsamples = 1\nvalue = [0, 1]"] ;
401 -> 402 ;
403 [label="entropy = 0.0\nsamples = 2\nvalue = [2, 0]"] ;
401 -> 403 ;
404 [label="entropy = 0.0\nsamples = 6\nvalue = [0, 6]"] ;
400 -> 404 ;
405 [label="X[2] <= 0.543\nentropy = 0.297\nsamples = 19\nvalue = [18, 1]"] ;
395 -> 405 ;
406 [label="entropy = 0.0\nsamples = 1\nvalue = [0, 1]"] ;
405 -> 406 ;
407 [label="entropy = 0.0\nsamples = 18\nvalue = [18, 0]"] ;
405 -> 407 ;
408 [label="X[3] <= 0.879\nentropy = 0.961\nsamples = 26\nvalue = [10, 16]"] ;
394 -> 408 ;
409 [label="X[2] <= 0.61\nentropy = 0.998\nsamples = 21\nvalue = [10, 11]"] ;
408 -> 409 ;
410 [label="X[0] <= 94.594\nentropy = 0.722\nsamples = 10\nvalue = [2, 8]"] ;
409 -> 410 ;
411 [label="X[1] <= 48.312\nentropy = 0.918\nsamples = 3\nvalue = [2, 1]"] ;
410 -> 411 ;
412 [label="entropy = 0.0\nsamples = 1\nvalue = [0, 1]"] ;
411 -> 412 ;
413 [label="entropy = 0.0\nsamples = 2\nvalue = [2, 0]"] ;
411 -> 413 ;
414 [label="entropy = 0.0\nsamples = 7\nvalue = [0, 7]"] ;
410 -> 414 ;
415 [label="X[1] <= 50.196\nentropy = 0.845\nsamples = 11\nvalue = [8, 3]"] ;
409 -> 415 ;
416 [label="entropy = 0.0\nsamples = 7\nvalue = [7, 0]"] ;
415 -> 416 ;
417 [label="X[1] <= 57.709\nentropy = 0.811\nsamples = 4\nvalue = [1, 3]"] ;
415 -> 417 ;
418 [label="entropy = 0.0\nsamples = 3\nvalue = [0, 3]"] ;
417 -> 418 ;
419 [label="entropy = 0.0\nsamples = 1\nvalue = [1, 0]"] ;
417 -> 419 ;
420 [label="entropy = 0.0\nsamples = 5\nvalue = [0, 5]"] ;
408 -> 420 ;
421 [label="X[6] <= 2.808\nentropy = 0.555\nsamples = 31\nvalue = [27, 4]"] ;
393 -> 421 ;
422 [label="X[1] <= 38.669\nentropy = 0.89\nsamples = 13\nvalue = [9, 4]"] ;
421 -> 422 ;
423 [label="entropy = 0.0\nsamples = 3\nvalue = [0, 3]"] ;
422 -> 423 ;
424 [label="X[2] <= 0.787\nentropy = 0.469\nsamples = 10\nvalue = [9, 1]"] ;
422 -> 424 ;
425 [label="entropy = 0.0\nsamples = 7\nvalue = [7, 0]"] ;
424 -> 425 ;
426 [label="X[2] <= 0.795\nentropy = 0.918\nsamples = 3\nvalue = [2, 1]"] ;
424 -> 426 ;
427 [label="entropy = 0.0\nsamples = 1\nvalue = [0, 1]"] ;
426 -> 427 ;
428 [label="entropy = 0.0\nsamples = 2\nvalue = [2, 0]"] ;
426 -> 428 ;
429 [label="entropy = 0.0\nsamples = 18\nvalue = [18, 0]"] ;
421 -> 429 ;
430 [label="X[4] <= 61.802\nentropy = 0.949\nsamples = 57\nvalue = [21, 36]"] ;
392 -> 430 ;
431 [label="X[2] <= 1.063\nentropy = 0.637\nsamples = 31\nvalue = [5, 26]"] ;
430 -> 431 ;
432 [label="X[2] <= 0.823\nentropy = 0.391\nsamples = 26\nvalue = [2, 24]"] ;
431 -> 432 ;
433 [label="X[1] <= 44.369\nentropy = 1.0\nsamples = 2\nvalue = [1, 1]"] ;
432 -> 433 ;
434 [label="entropy = 0.0\nsamples = 1\nvalue = [0, 1]"] ;
433 -> 434 ;
435 [label="entropy = 0.0\nsamples = 1\nvalue = [1, 0]"] ;
433 -> 435 ;
436 [label="X[7] <= -0.307\nentropy = 0.25\nsamples = 24\nvalue = [1, 23]"] ;
432 -> 436 ;
437 [label="X[5] <= 70.882\nentropy = 0.918\nsamples = 3\nvalue = [1, 2]"] ;
436 -> 437 ;
438 [label="entropy = 0.0\nsamples = 1\nvalue = [1, 0]"] ;
437 -> 438 ;
439 [label="entropy = 0.0\nsamples = 2\nvalue = [0, 2]"] ;
437 -> 439 ;
440 [label="entropy = 0.0\nsamples = 21\nvalue = [0, 21]"] ;
436 -> 440 ;
441 [label="X[2] <= 1.086\nentropy = 0.971\nsamples = 5\nvalue = [3, 2]"] ;
431 -> 441 ;
442 [label="entropy = 0.0\nsamples = 3\nvalue = [3, 0]"] ;
441 -> 442 ;
443 [label="entropy = 0.0\nsamples = 2\nvalue = [0, 2]"] ;
441 -> 443 ;
444 [label="X[2] <= 1.046\nentropy = 0.961\nsamples = 26\nvalue = [16, 10]"] ;
430 -> 444 ;
445 [label="X[7] <= -1.024\nentropy = 0.845\nsamples = 22\nvalue = [16, 6]"] ;
444 -> 445 ;
446 [label="X[7] <= -1.206\nentropy = 0.991\nsamples = 9\nvalue = [4, 5]"] ;
445 -> 446 ;
447 [label="X[0] <= 85.711\nentropy = 0.918\nsamples = 6\nvalue = [4, 2]"] ;
446 -> 447 ;
448 [label="entropy = 0.0\nsamples = 2\nvalue = [0, 2]"] ;
447 -> 448 ;
449 [label="entropy = 0.0\nsamples = 4\nvalue = [4, 0]"] ;
447 -> 449 ;
450 [label="entropy = 0.0\nsamples = 3\nvalue = [0, 3]"] ;
446 -> 450 ;
451 [label="X[0] <= 95.402\nentropy = 0.391\nsamples = 13\nvalue = [12, 1]"] ;
445 -> 451 ;
452 [label="entropy = 0.0\nsamples = 11\nvalue = [11, 0]"] ;
451 -> 452 ;
453 [label="X[7] <= -0.266\nentropy = 1.0\nsamples = 2\nvalue = [1, 1]"] ;
451 -> 453 ;
454 [label="entropy = 0.0\nsamples = 1\nvalue = [1, 0]"] ;
453 -> 454 ;
455 [label="entropy = 0.0\nsamples = 1\nvalue = [0, 1]"] ;
453 -> 455 ;
456 [label="entropy = 0.0\nsamples = 4\nvalue = [0, 4]"] ;
444 -> 456 ;
457 [label="entropy = 0.0\nsamples = 13\nvalue = [13, 0]"] ;
391 -> 457 ;
458 [label="X[2] <= 1.525\nentropy = 0.466\nsamples = 1202\nvalue = [119, 1083]"] ;
0 -> 458 [labeldistance=2.5, labelangle=-45, headlabel="False"] ;
459 [label="X[0] <= 70.059\nentropy = 0.992\nsamples = 183\nvalue = [82, 101]"] ;
458 -> 459 ;
460 [label="entropy = 0.0\nsamples = 17\nvalue = [17, 0]"] ;
459 -> 460 ;
461 [label="X[1] <= 34.066\nentropy = 0.966\nsamples = 166\nvalue = [65, 101]"] ;
459 -> 461 ;
462 [label="X[2] <= 1.384\nentropy = 0.353\nsamples = 15\nvalue = [14, 1]"] ;
461 -> 462 ;
463 [label="entropy = 0.0\nsamples = 14\nvalue = [14, 0]"] ;
462 -> 463 ;
464 [label="entropy = 0.0\nsamples = 1\nvalue = [0, 1]"] ;
462 -> 464 ;
465 [label="X[7] <= -1.547\nentropy = 0.923\nsamples = 151\nvalue = [51, 100]"] ;
461 -> 465 ;
466 [label="entropy = 0.0\nsamples = 9\nvalue = [9, 0]"] ;
465 -> 466 ;
467 [label="X[5] <= 15.118\nentropy = 0.876\nsamples = 142\nvalue = [42, 100]"] ;
465 -> 467 ;
468 [label="X[0] <= 93.035\nentropy = 0.503\nsamples = 9\nvalue = [8, 1]"] ;
467 -> 468 ;
469 [label="entropy = 0.0\nsamples = 8\nvalue = [8, 0]"] ;
468 -> 469 ;
470 [label="entropy = 0.0\nsamples = 1\nvalue = [0, 1]"] ;
468 -> 470 ;
471 [label="X[6] <= 1.628\nentropy = 0.82\nsamples = 133\nvalue = [34, 99]"] ;
467 -> 471 ;
472 [label="X[2] <= 1.461\nentropy = 0.987\nsamples = 53\nvalue = [23, 30]"] ;
471 -> 472 ;
473 [label="X[4] <= 40.576\nentropy = 1.0\nsamples = 47\nvalue = [23, 24]"] ;
472 -> 473 ;
474 [label="entropy = 0.0\nsamples = 4\nvalue = [4, 0]"] ;
473 -> 474 ;
475 [label="X[3] <= 3.358\nentropy = 0.99\nsamples = 43\nvalue = [19, 24]"] ;
473 -> 475 ;
476 [label="X[6] <= 1.394\nentropy = 1.0\nsamples = 39\nvalue = [19, 20]"] ;
475 -> 476 ;
477 [label="X[7] <= -0.08\nentropy = 0.998\nsamples = 36\nvalue = [19, 17]"] ;
476 -> 477 ;
478 [label="X[7] <= -0.484\nentropy = 0.987\nsamples = 30\nvalue = [13, 17]"] ;
477 -> 478 ;
479 [label="X[2] <= 1.139\nentropy = 0.995\nsamples = 24\nvalue = [13, 11]"] ;
478 -> 479 ;
480 [label="entropy = 0.0\nsamples = 4\nvalue = [0, 4]"] ;
479 -> 480 ;
481 [label="X[5] <= 73.906\nentropy = 0.934\nsamples = 20\nvalue = [13, 7]"] ;
479 -> 481 ;
482 [label="entropy = 0.0\nsamples = 3\nvalue = [0, 3]"] ;
481 -> 482 ;
483 [label="X[4] <= 119.545\nentropy = 0.787\nsamples = 17\nvalue = [13, 4]"] ;
481 -> 483 ;
484 [label="entropy = 0.0\nsamples = 10\nvalue = [10, 0]"] ;
483 -> 484 ;
485 [label="X[3] <= 1.791\nentropy = 0.985\nsamples = 7\nvalue = [3, 4]"] ;
483 -> 485 ;
486 [label="X[3] <= 1.146\nentropy = 0.722\nsamples = 5\nvalue = [1, 4]"] ;
485 -> 486 ;
487 [label="X[1] <= 56.852\nentropy = 1.0\nsamples = 2\nvalue = [1, 1]"] ;
486 -> 487 ;
488 [label="entropy = 0.0\nsamples = 1\nvalue = [1, 0]"] ;
487 -> 488 ;
489 [label="entropy = 0.0\nsamples = 1\nvalue = [0, 1]"] ;
487 -> 489 ;
490 [label="entropy = 0.0\nsamples = 3\nvalue = [0, 3]"] ;
486 -> 490 ;
491 [label="entropy = 0.0\nsamples = 2\nvalue = [2, 0]"] ;
485 -> 491 ;
492 [label="entropy = 0.0\nsamples = 6\nvalue = [0, 6]"] ;
478 -> 492 ;
493 [label="entropy = 0.0\nsamples = 6\nvalue = [6, 0]"] ;
477 -> 493 ;
494 [label="entropy = 0.0\nsamples = 3\nvalue = [0, 3]"] ;
476 -> 494 ;
495 [label="entropy = 0.0\nsamples = 4\nvalue = [0, 4]"] ;
475 -> 495 ;
496 [label="entropy = 0.0\nsamples = 6\nvalue = [0, 6]"] ;
472 -> 496 ;
497 [label="X[1] <= 37.755\nentropy = 0.578\nsamples = 80\nvalue = [11, 69]"] ;
471 -> 497 ;
498 [label="X[0] <= 83.113\nentropy = 0.985\nsamples = 14\nvalue = [6, 8]"] ;
497 -> 498 ;
499 [label="X[2] <= 1.298\nentropy = 0.918\nsamples = 9\nvalue = [6, 3]"] ;
498 -> 499 ;
500 [label="entropy = 0.0\nsamples = 5\nvalue = [5, 0]"] ;
499 -> 500 ;
501 [label="X[0] <= 81.855\nentropy = 0.811\nsamples = 4\nvalue = [1, 3]"] ;
499 -> 501 ;
502 [label="entropy = 0.0\nsamples = 3\nvalue = [0, 3]"] ;
501 -> 502 ;
503 [label="entropy = 0.0\nsamples = 1\nvalue = [1, 0]"] ;
501 -> 503 ;
504 [label="entropy = 0.0\nsamples = 5\nvalue = [0, 5]"] ;
498 -> 504 ;
505 [label="X[3] <= 1.927\nentropy = 0.387\nsamples = 66\nvalue = [5, 61]"] ;
497 -> 505 ;
506 [label="X[1] <= 47.323\nentropy = 0.89\nsamples = 13\nvalue = [4, 9]"] ;
505 -> 506 ;
507 [label="entropy = 0.0\nsamples = 2\nvalue = [2, 0]"] ;
506 -> 507 ;
508 [label="X[1] <= 52.914\nentropy = 0.684\nsamples = 11\nvalue = [2, 9]"] ;
506 -> 508 ;
509 [label="entropy = 0.0\nsamples = 6\nvalue = [0, 6]"] ;
508 -> 509 ;
510 [label="X[0] <= 81.152\nentropy = 0.971\nsamples = 5\nvalue = [2, 3]"] ;
508 -> 510 ;
511 [label="entropy = 0.0\nsamples = 3\nvalue = [0, 3]"] ;
510 -> 511 ;
512 [label="entropy = 0.0\nsamples = 2\nvalue = [2, 0]"] ;
510 -> 512 ;
513 [label="X[3] <= 4.287\nentropy = 0.135\nsamples = 53\nvalue = [1, 52]"] ;
505 -> 513 ;
514 [label="entropy = 0.0\nsamples = 50\nvalue = [0, 50]"] ;
513 -> 514 ;
515 [label="X[7] <= 19.839\nentropy = 0.918\nsamples = 3\nvalue = [1, 2]"] ;
513 -> 515 ;
516 [label="entropy = 0.0\nsamples = 2\nvalue = [0, 2]"] ;
515 -> 516 ;
517 [label="entropy = 0.0\nsamples = 1\nvalue = [1, 0]"] ;
515 -> 517 ;
518 [label="X[2] <= 2.67\nentropy = 0.225\nsamples = 1019\nvalue = [37, 982]"] ;
458 -> 518 ;
519 [label="X[6] <= 0.715\nentropy = 0.487\nsamples = 293\nvalue = [31, 262]"] ;
518 -> 519 ;
520 [label="X[4] <= 169.519\nentropy = 0.837\nsamples = 45\nvalue = [12, 33]"] ;
519 -> 520 ;
521 [label="X[6] <= -0.035\nentropy = 0.782\nsamples = 43\nvalue = [10, 33]"] ;
520 -> 521 ;
522 [label="entropy = 0.0\nsamples = 18\nvalue = [0, 18]"] ;
521 -> 522 ;
523 [label="X[3] <= 3.596\nentropy = 0.971\nsamples = 25\nvalue = [10, 15]"] ;
521 -> 523 ;
524 [label="entropy = 0.0\nsamples = 4\nvalue = [4, 0]"] ;
523 -> 524 ;
525 [label="X[5] <= 67.323\nentropy = 0.863\nsamples = 21\nvalue = [6, 15]"] ;
523 -> 525 ;
526 [label="entropy = 0.0\nsamples = 3\nvalue = [3, 0]"] ;
525 -> 526 ;
527 [label="X[1] <= 46.102\nentropy = 0.65\nsamples = 18\nvalue = [3, 15]"] ;
525 -> 527 ;
528 [label="X[5] <= 104.828\nentropy = 0.881\nsamples = 10\nvalue = [3, 7]"] ;
527 -> 528 ;
529 [label="X[1] <= 36.153\nentropy = 0.764\nsamples = 9\nvalue = [2, 7]"] ;
528 -> 529 ;
530 [label="entropy = 0.0\nsamples = 1\nvalue = [1, 0]"] ;
529 -> 530 ;
531 [label="X[1] <= 45.023\nentropy = 0.544\nsamples = 8\nvalue = [1, 7]"] ;
529 -> 531 ;
532 [label="entropy = 0.0\nsamples = 7\nvalue = [0, 7]"] ;
531 -> 532 ;
533 [label="entropy = 0.0\nsamples = 1\nvalue = [1, 0]"] ;
531 -> 533 ;
534 [label="entropy = 0.0\nsamples = 1\nvalue = [1, 0]"] ;
528 -> 534 ;
535 [label="entropy = 0.0\nsamples = 8\nvalue = [0, 8]"] ;
527 -> 535 ;
536 [label="entropy = 0.0\nsamples = 2\nvalue = [2, 0]"] ;
520 -> 536 ;
537 [label="X[0] <= 66.484\nentropy = 0.39\nsamples = 248\nvalue = [19, 229]"] ;
519 -> 537 ;
538 [label="X[2] <= 2.119\nentropy = 0.565\nsamples = 98\nvalue = [13, 85]"] ;
537 -> 538 ;
539 [label="X[2] <= 2.084\nentropy = 0.904\nsamples = 25\nvalue = [8, 17]"] ;
538 -> 539 ;
540 [label="X[2] <= 1.718\nentropy = 0.773\nsamples = 22\nvalue = [5, 17]"] ;
539 -> 540 ;
541 [label="X[6] <= 4.979\nentropy = 0.811\nsamples = 4\nvalue = [3, 1]"] ;
540 -> 541 ;
542 [label="entropy = 0.0\nsamples = 3\nvalue = [3, 0]"] ;
541 -> 542 ;
543 [label="entropy = 0.0\nsamples = 1\nvalue = [0, 1]"] ;
541 -> 543 ;
544 [label="X[1] <= 33.636\nentropy = 0.503\nsamples = 18\nvalue = [2, 16]"] ;
540 -> 544 ;
545 [label="entropy = 0.0\nsamples = 1\nvalue = [1, 0]"] ;
544 -> 545 ;
546 [label="X[5] <= 77.234\nentropy = 0.323\nsamples = 17\nvalue = [1, 16]"] ;
544 -> 546 ;
547 [label="entropy = 0.0\nsamples = 15\nvalue = [0, 15]"] ;
546 -> 547 ;
548 [label="X[3] <= 4.158\nentropy = 1.0\nsamples = 2\nvalue = [1, 1]"] ;
546 -> 548 ;
549 [label="entropy = 0.0\nsamples = 1\nvalue = [0, 1]"] ;
548 -> 549 ;
550 [label="entropy = 0.0\nsamples = 1\nvalue = [1, 0]"] ;
548 -> 550 ;
551 [label="entropy = 0.0\nsamples = 3\nvalue = [3, 0]"] ;
539 -> 551 ;
552 [label="X[1] <= 32.12\nentropy = 0.36\nsamples = 73\nvalue = [5, 68]"] ;
538 -> 552 ;
553 [label="X[4] <= 4.634\nentropy = 1.0\nsamples = 4\nvalue = [2, 2]"] ;
552 -> 553 ;
554 [label="entropy = 0.0\nsamples = 1\nvalue = [1, 0]"] ;
553 -> 554 ;
555 [label="X[0] <= 56.059\nentropy = 0.918\nsamples = 3\nvalue = [1, 2]"] ;
553 -> 555 ;
556 [label="entropy = 0.0\nsamples = 1\nvalue = [1, 0]"] ;
555 -> 556 ;
557 [label="entropy = 0.0\nsamples = 2\nvalue = [0, 2]"] ;
555 -> 557 ;
558 [label="X[5] <= 61.258\nentropy = 0.258\nsamples = 69\nvalue = [3, 66]"] ;
552 -> 558 ;
559 [label="entropy = 0.0\nsamples = 43\nvalue = [0, 43]"] ;
558 -> 559 ;
560 [label="X[6] <= 1.858\nentropy = 0.516\nsamples = 26\nvalue = [3, 23]"] ;
558 -> 560 ;
561 [label="entropy = 0.0\nsamples = 21\nvalue = [0, 21]"] ;
560 -> 561 ;
562 [label="X[4] <= 29.304\nentropy = 0.971\nsamples = 5\nvalue = [3, 2]"] ;
560 -> 562 ;
563 [label="entropy = 0.0\nsamples = 2\nvalue = [2, 0]"] ;
562 -> 563 ;
564 [label="X[3] <= 7.801\nentropy = 0.918\nsamples = 3\nvalue = [1, 2]"] ;
562 -> 564 ;
565 [label="entropy = 0.0\nsamples = 2\nvalue = [0, 2]"] ;
564 -> 565 ;
566 [label="entropy = 0.0\nsamples = 1\nvalue = [1, 0]"] ;
564 -> 566 ;
567 [label="X[1] <= 50.163\nentropy = 0.242\nsamples = 150\nvalue = [6, 144]"] ;
537 -> 567 ;
568 [label="X[5] <= 44.203\nentropy = 0.148\nsamples = 142\nvalue = [3, 139]"] ;
567 -> 568 ;
569 [label="X[5] <= 36.852\nentropy = 0.286\nsamples = 60\nvalue = [3, 57]"] ;
568 -> 569 ;
570 [label="entropy = 0.0\nsamples = 41\nvalue = [0, 41]"] ;
569 -> 570 ;
571 [label="X[5] <= 37.223\nentropy = 0.629\nsamples = 19\nvalue = [3, 16]"] ;
569 -> 571 ;
572 [label="X[0] <= 80.008\nentropy = 0.918\nsamples = 3\nvalue = [2, 1]"] ;
571 -> 572 ;
573 [label="entropy = 0.0\nsamples = 2\nvalue = [2, 0]"] ;
572 -> 573 ;
574 [label="entropy = 0.0\nsamples = 1\nvalue = [0, 1]"] ;
572 -> 574 ;
575 [label="X[5] <= 44.036\nentropy = 0.337\nsamples = 16\nvalue = [1, 15]"] ;
571 -> 575 ;
576 [label="entropy = 0.0\nsamples = 15\nvalue = [0, 15]"] ;
575 -> 576 ;
577 [label="entropy = 0.0\nsamples = 1\nvalue = [1, 0]"] ;
575 -> 577 ;
578 [label="entropy = 0.0\nsamples = 82\nvalue = [0, 82]"] ;
568 -> 578 ;
579 [label="X[0] <= 75.059\nentropy = 0.954\nsamples = 8\nvalue = [3, 5]"] ;
567 -> 579 ;
580 [label="entropy = 0.0\nsamples = 5\nvalue = [0, 5]"] ;
579 -> 580 ;
581 [label="entropy = 0.0\nsamples = 3\nvalue = [3, 0]"] ;
579 -> 581 ;
582 [label="X[1] <= 39.172\nentropy = 0.069\nsamples = 726\nvalue = [6, 720]"] ;
518 -> 582 ;
583 [label="X[7] <= -1.255\nentropy = 0.032\nsamples = 604\nvalue = [2, 602]"] ;
582 -> 583 ;
584 [label="X[6] <= 0.552\nentropy = 0.242\nsamples = 25\nvalue = [1, 24]"] ;
583 -> 584 ;
585 [label="entropy = 0.0\nsamples = 24\nvalue = [0, 24]"] ;
584 -> 585 ;
586 [label="entropy = 0.0\nsamples = 1\nvalue = [1, 0]"] ;
584 -> 586 ;
587 [label="X[1] <= 34.541\nentropy = 0.018\nsamples = 579\nvalue = [1, 578]"] ;
583 -> 587 ;
588 [label="entropy = 0.0\nsamples = 423\nvalue = [0, 423]"] ;
587 -> 588 ;
589 [label="X[1] <= 34.575\nentropy = 0.056\nsamples = 156\nvalue = [1, 155]"] ;
587 -> 589 ;
590 [label="entropy = 0.0\nsamples = 1\nvalue = [1, 0]"] ;
589 -> 590 ;
591 [label="entropy = 0.0\nsamples = 155\nvalue = [0, 155]"] ;
589 -> 591 ;
592 [label="X[1] <= 39.199\nentropy = 0.208\nsamples = 122\nvalue = [4, 118]"] ;
582 -> 592 ;
593 [label="entropy = 0.0\nsamples = 1\nvalue = [1, 0]"] ;
592 -> 593 ;
594 [label="X[2] <= 3.679\nentropy = 0.168\nsamples = 121\nvalue = [3, 118]"] ;
592 -> 594 ;
595 [label="entropy = 0.0\nsamples = 83\nvalue = [0, 83]"] ;
594 -> 595 ;
596 [label="X[2] <= 3.692\nentropy = 0.398\nsamples = 38\nvalue = [3, 35]"] ;
594 -> 596 ;
597 [label="entropy = 0.0\nsamples = 1\nvalue = [1, 0]"] ;
596 -> 597 ;
598 [label="X[4] <= 64.491\nentropy = 0.303\nsamples = 37\nvalue = [2, 35]"] ;
596 -> 598 ;
599 [label="X[3] <= 17.259\nentropy = 0.863\nsamples = 7\nvalue = [2, 5]"] ;
598 -> 599 ;
600 [label="entropy = 0.0\nsamples = 4\nvalue = [0, 4]"] ;
599 -> 600 ;
601 [label="X[0] <= 34.234\nentropy = 0.918\nsamples = 3\nvalue = [2, 1]"] ;
599 -> 601 ;
602 [label="entropy = 0.0\nsamples = 2\nvalue = [2, 0]"] ;
601 -> 602 ;
603 [label="entropy = 0.0\nsamples = 1\nvalue = [0, 1]"] ;
601 -> 603 ;
604 [label="entropy = 0.0\nsamples = 30\nvalue = [0, 30]"] ;
598 -> 604 ;
}